digraph Tree {
node [shape=box] ;
0 [label="X[6] <= 44.96\ngini = 0.255\nsamples = 2333\nvalue = [1983, 350]"] ;
1 [label="X[16] <= 3.5\ngini = 0.206\nsamples = 2182\nvalue = [1927, 255]"] ;
0 -> 1 [labeldistance=2.5, labelangle=45, headlabel="True"] ;
2 [label="X[2] <= 0.5\ngini = 0.149\nsamples = 2004\nvalue = [1842, 162]"] ;
1 -> 2 ;
3 [label="X[4] <= 224.6\ngini = 0.096\nsamples = 1828\nvalue = [1736, 92]"] ;
2 -> 3 ;
4 [label="X[0] <= 224.5\ngini = 0.056\nsamples = 1570\nvalue = [1525, 45]"] ;
3 -> 4 ;
5 [label="X[10] <= 248.15\ngini = 0.055\nsamples = 1568\nvalue = [1524, 44]"] ;
4 -> 5 ;
6 [label="gini = 0.042\nsamples = 1295\nvalue = [1267, 28]"] ;
5 -> 6 ;
7 [label="gini = 0.11\nsamples = 273\nvalue = [257, 16]"] ;
5 -> 7 ;
8 [label="X[10] <= 237.1\ngini = 0.5\nsamples = 2\nvalue = [1, 1]"] ;
4 -> 8 ;
9 [label="gini = 0.0\nsamples = 1\nvalue = [0, 1]"] ;
8 -> 9 ;
10 [label="gini = 0.0\nsamples = 1\nvalue = [1, 0]"] ;
8 -> 10 ;
11 [label="X[9] <= 22.67\ngini = 0.298\nsamples = 258\nvalue = [211, 47]"] ;
3 -> 11 ;
12 [label="X[7] <= 242.35\ngini = 0.188\nsamples = 229\nvalue = [205, 24]"] ;
11 -> 12 ;
13 [label="gini = 0.123\nsamples = 198\nvalue = [185, 13]"] ;
12 -> 13 ;
14 [label="gini = 0.458\nsamples = 31\nvalue = [20, 11]"] ;
12 -> 14 ;
15 [label="X[3] <= 5.5\ngini = 0.328\nsamples = 29\nvalue = [6, 23]"] ;
11 -> 15 ;
16 [label="gini = 0.08\nsamples = 24\nvalue = [1, 23]"] ;
15 -> 16 ;
17 [label="gini = 0.0\nsamples = 5\nvalue = [5, 0]"] ;
15 -> 17 ;
18 [label="X[14] <= 2.5\ngini = 0.479\nsamples = 176\nvalue = [106, 70]"] ;
2 -> 18 ;
19 [label="gini = 0.0\nsamples = 39\nvalue = [0, 39]"] ;
18 -> 19 ;
20 [label="X[15] <= 3.535\ngini = 0.35\nsamples = 137\nvalue = [106, 31]"] ;
18 -> 20 ;
21 [label="X[7] <= 324.85\ngini = 0.086\nsamples = 111\nvalue = [106, 5]"] ;
20 -> 21 ;
22 [label="gini = 0.054\nsamples = 108\nvalue = [105, 3]"] ;
21 -> 22 ;
23 [label="gini = 0.444\nsamples = 3\nvalue = [1, 2]"] ;
21 -> 23 ;
24 [label="gini = 0.0\nsamples = 26\nvalue = [0, 26]"] ;
20 -> 24 ;
25 [label="X[4] <= 159.9\ngini = 0.499\nsamples = 178\nvalue = [85, 93]"] ;
1 -> 25 ;
26 [label="X[7] <= 265.5\ngini = 0.209\nsamples = 76\nvalue = [9, 67]"] ;
25 -> 26 ;
27 [label="X[4] <= 138.6\ngini = 0.153\nsamples = 72\nvalue = [6, 66]"] ;
26 -> 27 ;
28 [label="gini = 0.0\nsamples = 41\nvalue = [0, 41]"] ;
27 -> 28 ;
29 [label="X[7] <= 232.05\ngini = 0.312\nsamples = 31\nvalue = [6, 25]"] ;
27 -> 29 ;
30 [label="gini = 0.191\nsamples = 28\nvalue = [3, 25]"] ;
29 -> 30 ;
31 [label="gini = 0.0\nsamples = 3\nvalue = [3, 0]"] ;
29 -> 31 ;
32 [label="X[2] <= 0.5\ngini = 0.375\nsamples = 4\nvalue = [3, 1]"] ;
26 -> 32 ;
33 [label="gini = 0.0\nsamples = 3\nvalue = [3, 0]"] ;
32 -> 33 ;
34 [label="gini = 0.0\nsamples = 1\nvalue = [0, 1]"] ;
32 -> 34 ;
35 [label="X[7] <= 155.5\ngini = 0.38\nsamples = 102\nvalue = [76, 26]"] ;
25 -> 35 ;
36 [label="X[6] <= 34.36\ngini = 0.461\nsamples = 25\nvalue = [9, 16]"] ;
35 -> 36 ;
37 [label="X[5] <= 65.0\ngini = 0.231\nsamples = 15\nvalue = [2, 13]"] ;
36 -> 37 ;
38 [label="gini = 0.0\nsamples = 1\nvalue = [1, 0]"] ;
37 -> 38 ;
39 [label="gini = 0.133\nsamples = 14\nvalue = [1, 13]"] ;
37 -> 39 ;
40 [label="X[11] <= 118.5\ngini = 0.42\nsamples = 10\nvalue = [7, 3]"] ;
36 -> 40 ;
41 [label="gini = 0.219\nsamples = 8\nvalue = [7, 1]"] ;
40 -> 41 ;
42 [label="gini = 0.0\nsamples = 2\nvalue = [0, 2]"] ;
40 -> 42 ;
43 [label="X[4] <= 173.65\ngini = 0.226\nsamples = 77\nvalue = [67, 10]"] ;
35 -> 43 ;
44 [label="X[7] <= 208.9\ngini = 0.457\nsamples = 17\nvalue = [11, 6]"] ;
43 -> 44 ;
45 [label="gini = 0.245\nsamples = 7\nvalue = [1, 6]"] ;
44 -> 45 ;
46 [label="gini = 0.0\nsamples = 10\nvalue = [10, 0]"] ;
44 -> 46 ;
47 [label="X[16] <= 8.5\ngini = 0.124\nsamples = 60\nvalue = [56, 4]"] ;
43 -> 47 ;
48 [label="gini = 0.097\nsamples = 59\nvalue = [56, 3]"] ;
47 -> 48 ;
49 [label="gini = 0.0\nsamples = 1\nvalue = [0, 1]"] ;
47 -> 49 ;
50 [label="X[3] <= 6.5\ngini = 0.467\nsamples = 151\nvalue = [56, 95]"] ;
0 -> 50 [labeldistance=2.5, labelangle=-45, headlabel="False"] ;
51 [label="X[9] <= 15.96\ngini = 0.335\nsamples = 113\nvalue = [24, 89]"] ;
50 -> 51 ;
52 [label="X[6] <= 51.415\ngini = 0.495\nsamples = 40\nvalue = [22, 18]"] ;
51 -> 52 ;
53 [label="X[9] <= 13.205\ngini = 0.43\nsamples = 32\nvalue = [22, 10]"] ;
52 -> 53 ;
54 [label="gini = 0.0\nsamples = 11\nvalue = [11, 0]"] ;
53 -> 54 ;
55 [label="X[10] <= 213.25\ngini = 0.499\nsamples = 21\nvalue = [11, 10]"] ;
53 -> 55 ;
56 [label="gini = 0.153\nsamples = 12\nvalue = [11, 1]"] ;
55 -> 56 ;
57 [label="gini = 0.0\nsamples = 9\nvalue = [0, 9]"] ;
55 -> 57 ;
58 [label="gini = 0.0\nsamples = 8\nvalue = [0, 8]"] ;
52 -> 58 ;
59 [label="X[12] <= 5.9\ngini = 0.053\nsamples = 73\nvalue = [2, 71]"] ;
51 -> 59 ;
60 [label="X[8] <= 134.0\ngini = 0.444\nsamples = 3\nvalue = [2, 1]"] ;
59 -> 60 ;
61 [label="gini = 0.0\nsamples = 2\nvalue = [2, 0]"] ;
60 -> 61 ;
62 [label="gini = 0.0\nsamples = 1\nvalue = [0, 1]"] ;
60 -> 62 ;
63 [label="gini = 0.0\nsamples = 70\nvalue = [0, 70]"] ;
59 -> 63 ;
64 [label="X[2] <= 0.5\ngini = 0.266\nsamples = 38\nvalue = [32, 6]"] ;
50 -> 64 ;
65 [label="X[6] <= 54.23\ngini = 0.062\nsamples = 31\nvalue = [30, 1]"] ;
64 -> 65 ;
66 [label="gini = 0.0\nsamples = 30\nvalue = [30, 0]"] ;
65 -> 66 ;
67 [label="gini = 0.0\nsamples = 1\nvalue = [0, 1]"] ;
65 -> 67 ;
68 [label="X[4] <= 276.3\ngini = 0.408\nsamples = 7\nvalue = [2, 5]"] ;
64 -> 68 ;
69 [label="gini = 0.0\nsamples = 4\nvalue = [0, 4]"] ;
68 -> 69 ;
70 [label="X[10] <= 241.85\ngini = 0.444\nsamples = 3\nvalue = [2, 1]"] ;
68 -> 70 ;
71 [label="gini = 0.0\nsamples = 2\nvalue = [2, 0]"] ;
70 -> 71 ;
72 [label="gini = 0.0\nsamples = 1\nvalue = [0, 1]"] ;
70 -> 72 ;
}